<?xml version="1.0"?>
<opencv_storage>
<cascade>
  <stageType>BOOST</stageType>
  <featureType>HAAR</featureType>
  <height>24</height>
  <width>24</width>
  <stageParams>
    <boostType>GAB</boostType>
    <minHitRate>9.9989998340606689e-01</minHitRate>
    <maxFalseAlarm>5.0000000000000000e-01</maxFalseAlarm>
    <weightTrimRate>9.4999999999999996e-01</weightTrimRate>
    <maxDepth>1</maxDepth>
    <maxWeakCount>100</maxWeakCount></stageParams>
  <featureParams>
    <maxCatCount>0</maxCatCount>
    <featSize>1</featSize>
    <mode>BASIC</mode></featureParams>
  <stageNum>15</stageNum>
  <stages>
    <!-- stage 0 -->
    <_>
      <maxWeakCount>6</maxWeakCount>
      <stageThreshold>-2.7604050636291504e+00</stageThreshold>
      <weakClassifiers>
        <_>
          <internalNodes>
            0 -1 13 -4.6435710974037647e-03</internalNodes>
          <leafValues>
            4.4066318869590759e-01 -8.7771546840667725e-01</leafValues></_>
        <_>
          <internalNodes>
            0 -1 209 7.8605711460113525e-03</internalNodes>
          <leafValues>
            -7.1906936168670654e-01 5.8095109462738037e-01</leafValues></_>
        <_>
          <internalNodes>
            0 -1 65 -7.4832481332123280e-03</internalNodes>
          <leafValues>
            6.5675169229507446e-01 -6.1625409126281738e-01</leafValues></_>
        <_>
          <internalNodes>
            0 -1 77 9.3623921275138855e-03</internalNodes>
          <leafValues>
            -8.1784892082214355e-01 4.9625033140182495e-01</leafValues></_>
        <_>
          <internalNodes>
            0 -1 112 -4.5963786542415619e-03</internalNodes>
          <leafValues>
            6.1533099412918091e-01 -6.3129997253417969e-01</leafValues></_>
        <_>
          <internalNodes>
            0 -1 167 1.0665833018720150e-02</internalNodes>
          <leafValues>
            -3.9823764562606812e-01 8.7612336874008179e-01</leafValues></_></weakClassifiers></_>
    <!-- stage 1 -->
    <_>
      <maxWeakCount>7</maxWeakCount>
      <stageThreshold>-2.3991291522979736e+00</stageThreshold>
      <weakClassifiers>
        <_>
          <internalNodes>
            0 -1 120 3.6561097949743271e-03</internalNodes>
          <leafValues>
            -6.7937833070755005e-01 6.8601334095001221e-01</leafValues></_>
        <_>
          <internalNodes>
            0 -1 225 3.3994824625551701e-03</internalNodes>
          <leafValues>
            -6.7726916074752808e-01 5.6688648462295532e-01</leafValues></_>
        <_>
          <internalNodes>
            0 -1 9 -9.4165299087762833e-03</internalNodes>
          <leafValues>
            4.7402438521385193e-01 -7.4833315610885620e-01</leafValues></_>
        <_>
          <internalNodes>
            0 -1 51 -2.1979060024023056e-02</internalNodes>
          <leafValues>
            3.8277044892311096e-01 -8.0222201347351074e-01</leafValues></_>
        <_>
          <internalNodes>
            0 -1 210 5.5143735371530056e-03</internalNodes>
          <leafValues>
            -5.4235863685607910e-01 5.2183967828750610e-01</leafValues></_>
        <_>
          <internalNodes>
            0 -1 19 -4.2051710188388824e-03</internalNodes>
          <leafValues>
            6.1378711462020874e-01 -4.7308951616287231e-01</leafValues></_>
        <_>
          <internalNodes>
            0 -1 89 1.6749076545238495e-02</internalNodes>
          <leafValues>
            -7.8571254014968872e-01 3.6965799331665039e-01</leafValues></_></weakClassifiers></_>
    <!-- stage 2 -->
    <_>
      <maxWeakCount>8</maxWeakCount>
      <stageThreshold>-2.1306202411651611e+00</stageThreshold>
      <weakClassifiers>
        <_>
          <internalNodes>
            0 -1 121 5.3182113915681839e-03</internalNodes>
          <leafValues>
            -6.6982483863830566e-01 6.4410060644149780e-01</leafValues></_>
        <_>
          <internalNodes>
            0 -1 136 4.4575170613825321e-03</internalNodes>
          <leafValues>
            -5.9591114521026611e-01 5.2662885189056396e-01</leafValues></_>
        <_>
          <internalNodes>
            0 -1 207 6.7464038729667664e-03</internalNodes>
          <leafValues>
            -5.6140685081481934e-01 5.1041138172149658e-01</leafValues></_>
        <_>
          <internalNodes>
            0 -1 138 -5.4179397411644459e-03</internalNodes>
          <leafValues>
            6.0313564538955688e-01 -4.7073930501937866e-01</leafValues></_>
        <_>
          <internalNodes>
            0 -1 17 -3.8754222914576530e-03</internalNodes>
          <leafValues>
            4.9203708767890930e-01 -5.5994427204132080e-01</leafValues></_>
        <_>
          <internalNodes>
            0 -1 83 1.1701369658112526e-02</internalNodes>
          <leafValues>
            -3.5670000314712524e-01 6.9902557134628296e-01</leafValues></_>
        <_>
          <internalNodes>
            0 -1 118 -1.9541259389370680e-03</internalNodes>
          <leafValues>
            6.5685570240020752e-01 -3.3797776699066162e-01</leafValues></_>
        <_>
          <internalNodes>
            0 -1 28 -4.4541675597429276e-03</internalNodes>
          <leafValues>
            3.6990272998809814e-01 -6.3254219293594360e-01</leafValues></_></weakClassifiers></_>
    <!-- stage 3 -->
    <_>
      <maxWeakCount>9</maxWeakCount>
      <stageThreshold>-2.6563572883605957e+00</stageThreshold>
      <weakClassifiers>
        <_>
          <internalNodes>
            0 -1 166 8.6072720587253571e-03</internalNodes>
          <leafValues>
            -6.6934788227081299e-01 6.3583815097808838e-01</leafValues></_>
        <_>
          <internalNodes>
            0 -1 213 6.1733834445476532e-03</internalNodes>
          <leafValues>
            -6.0940778255462646e-01 3.8983005285263062e-01</leafValues></_>
        <_>
          <internalNodes>
            0 -1 65 -7.4696019291877747e-03</internalNodes>
          <leafValues>
            4.1031488776206970e-01 -5.3766041994094849e-01</leafValues></_>
        <_>
          <internalNodes>
            0 -1 225 4.3782442808151245e-03</internalNodes>
          <leafValues>
            -4.8141393065452576e-01 4.8214235901832581e-01</leafValues></_>
        <_>
          <internalNodes>
            0 -1 126 2.3154746741056442e-03</internalNodes>
          <leafValues>
            -2.9287725687026978e-01 7.6500874757766724e-01</leafValues></_>
        <_>
          <internalNodes>
            0 -1 90 2.2210476454347372e-03</internalNodes>
          <leafValues>
            -4.5616537332534790e-01 4.9373501539230347e-01</leafValues></_>
        <_>
          <internalNodes>
            0 -1 13 -5.3151771426200867e-03</internalNodes>
          <leafValues>
            3.9052513241767883e-01 -5.5557674169540405e-01</leafValues></_>
        <_>
          <internalNodes>
            0 -1 104 -3.1340732239186764e-03</internalNodes>
          <leafValues>
            3.8466742634773254e-01 -6.1516195535659790e-01</leafValues></_>
        <_>
          <internalNodes>
            0 -1 54 -7.5096096843481064e-03</internalNodes>
          <leafValues>
            5.0202858448028564e-01 -4.0154010057449341e-01</leafValues></_></weakClassifiers></_>
    <!-- stage 4 -->
    <_>
      <maxWeakCount>9</maxWeakCount>
      <stageThreshold>-2.2876198291778564e+00</stageThreshold>
      <weakClassifiers>
        <_>
          <internalNodes>
            0 -1 172 -8.1825256347656250e-03</internalNodes>
          <leafValues>
            5.5062681436538696e-01 -6.5646994113922119e-01</leafValues></_>
        <_>
          <internalNodes>
            0 -1 163 9.8568899556994438e-03</internalNodes>
          <leafValues>
            -7.0301944017410278e-01 2.4411274492740631e-01</leafValues></_>
        <_>
          <internalNodes>
            0 -1 171 5.9193698689341545e-03</internalNodes>
          <leafValues>
            -3.1418791413307190e-01 6.5757220983505249e-01</leafValues></_>
        <_>
          <internalNodes>
            0 -1 62 -1.4476299285888672e-02</internalNodes>
          <leafValues>
            2.7536669373512268e-01 -8.0817681550979614e-01</leafValues></_>
        <_>
          <internalNodes>
            0 -1 38 8.6411023512482643e-03</internalNodes>
          <leafValues>
            -4.1172575950622559e-01 4.5341944694519043e-01</leafValues></_>
        <_>
          <internalNodes>
            0 -1 154 3.0947355553507805e-03</internalNodes>
          <leafValues>
            -3.4923809766769409e-01 4.8872676491737366e-01</leafValues></_>
        <_>
          <internalNodes>
            0 -1 59 -3.2368961721658707e-02</internalNodes>
          <leafValues>
            -8.1385123729705811e-01 2.7127850055694580e-01</leafValues></_>
        <_>
          <internalNodes>
            0 -1 151 4.5465573668479919e-02</internalNodes>
          <leafValues>
            1.8881092965602875e-01 -8.2472097873687744e-01</leafValues></_>
        <_>
          <internalNodes>
            0 -1 36 4.3628485873341560e-03</internalNodes>
          <leafValues>
            -4.5202356576919556e-01 3.7440776824951172e-01</leafValues></_></weakClassifiers></_>
    <!-- stage 5 -->
    <_>
      <maxWeakCount>15</maxWeakCount>
      <stageThreshold>-2.2517635822296143e+00</stageThreshold>
      <weakClassifiers>
        <_>
          <internalNodes>
            0 -1 108 1.2896523810923100e-02</internalNodes>
          <leafValues>
            -6.4498567581176758e-01 4.9215686321258545e-01</leafValues></_>
        <_>
          <internalNodes>
            0 -1 75 1.4805566519498825e-02</internalNodes>
          <leafValues>
            -7.5011789798736572e-01 1.8885245919227600e-01</leafValues></_>
        <_>
          <internalNodes>
            0 -1 192 1.3621699064970016e-02</internalNodes>
          <leafValues>
            -7.6995396614074707e-01 2.0344361662864685e-01</leafValues></_>
        <_>
          <internalNodes>
            0 -1 98 6.5686777234077454e-03</internalNodes>
          <leafValues>
            -3.9628764986991882e-01 4.3473163247108459e-01</leafValues></_>
        <_>
          <internalNodes>
            0 -1 4 -4.3093357235193253e-03</internalNodes>
          <leafValues>
            2.6050642132759094e-01 -7.0753967761993408e-01</leafValues></_>
        <_>
          <internalNodes>
            0 -1 149 6.4509948715567589e-03</internalNodes>
          <leafValues>
            -3.4699535369873047e-01 4.9389523267745972e-01</leafValues></_>
        <_>
          <internalNodes>
            0 -1 115 1.2758851051330566e-02</internalNodes>
          <leafValues>
            -2.5969868898391724e-01 5.7144826650619507e-01</leafValues></_>
        <_>
          <internalNodes>
            0 -1 140 1.9140515942126513e-03</internalNodes>
          <leafValues>
            -5.5559152364730835e-01 2.8835007548332214e-01</leafValues></_>
        <_>
          <internalNodes>
            0 -1 184 -4.4998340308666229e-03</internalNodes>
          <leafValues>
            2.4270614981651306e-01 -6.1013484001159668e-01</leafValues></_>
        <_>
          <internalNodes>
            0 -1 168 1.8358360975980759e-02</internalNodes>
          <leafValues>
            -2.6084282994270325e-01 6.9132643938064575e-01</leafValues></_>
        <_>
          <internalNodes>
            0 -1 22 -7.3300139047205448e-03</internalNodes>
          <leafValues>
            4.2242664098739624e-01 -4.1712608933448792e-01</leafValues></_>
        <_>
          <internalNodes>
            0 -1 189 4.9392804503440857e-03</internalNodes>
          <leafValues>
            -3.4551405906677246e-01 4.7672873735427856e-01</leafValues></_>
        <_>
          <internalNodes>
            0 -1 104 -5.6181130930781364e-03</internalNodes>
          <leafValues>
            3.8375377655029297e-01 -4.0632295608520508e-01</leafValues></_>
        <_>
          <internalNodes>
            0 -1 221 3.6696288734674454e-03</internalNodes>
          <leafValues>
            -4.2634946107864380e-01 3.8646373152732849e-01</leafValues></_>
        <_>
          <internalNodes>
            0 -1 135 4.4601866975426674e-03</internalNodes>
          <leafValues>
            -4.0809652209281921e-01 3.7050056457519531e-01</leafValues></_></weakClassifiers></_>
    <!-- stage 6 -->
    <_>
      <maxWeakCount>15</maxWeakCount>
      <stageThreshold>-2.3819856643676758e+00</stageThreshold>
      <weakClassifiers>
        <_>
          <internalNodes>
            0 -1 185 -1.4282401651144028e-02</internalNodes>
          <leafValues>
            7.5000000000000000e-01 -6.1314070224761963e-01</leafValues></_>
        <_>
          <internalNodes>
            0 -1 41 -9.1398712247610092e-03</internalNodes>
          <leafValues>
            2.5908991694450378e-01 -6.2400156259536743e-01</leafValues></_>
        <_>
          <internalNodes>
            0 -1 12 -3.1881895847618580e-03</internalNodes>
          <leafValues>
            3.0136153101921082e-01 -5.2843618392944336e-01</leafValues></_>
        <_>
          <internalNodes>
            0 -1 197 3.6063177976757288e-03</internalNodes>
          <leafValues>
            -6.3386452198028564e-01 2.2338895499706268e-01</leafValues></_>
        <_>
          <internalNodes>
            0 -1 50 -1.5828490257263184e-02</internalNodes>
          <leafValues>
            3.0446779727935791e-01 -5.2591162919998169e-01</leafValues></_>
        <_>
          <internalNodes>
            0 -1 153 2.1621873602271080e-03</internalNodes>
          <leafValues>
            -2.6667386293411255e-01 5.7165926694869995e-01</leafValues></_>
        <_>
          <internalNodes>
            0 -1 106 -1.5051894821226597e-02</internalNodes>
          <leafValues>
            -7.2422379255294800e-01 1.9149734079837799e-01</leafValues></_>
        <_>
          <internalNodes>
            0 -1 101 3.5756215453147888e-02</internalNodes>
          <leafValues>
            1.8505132198333740e-01 -8.3412104845046997e-01</leafValues></_>
        <_>
          <internalNodes>
            0 -1 56 -3.3709856215864420e-03</internalNodes>
          <leafValues>
            3.4657612442970276e-01 -3.8274073600769043e-01</leafValues></_>
        <_>
          <internalNodes>
            0 -1 202 4.7552948817610741e-03</internalNodes>
          <leafValues>
            -5.1212155818939209e-01 2.3835818469524384e-01</leafValues></_>
        <_>
          <internalNodes>
            0 -1 148 2.1439227275550365e-03</internalNodes>
          <leafValues>
            -3.7682834267616272e-01 4.0405312180519104e-01</leafValues></_>
        <_>
          <internalNodes>
            0 -1 120 4.1161449626088142e-03</internalNodes>
          <leafValues>
            -1.9336204230785370e-01 6.7304855585098267e-01</leafValues></_>
        <_>
          <internalNodes>
            0 -1 224 4.5458739623427391e-03</internalNodes>
          <leafValues>
            -3.5211482644081116e-01 3.4419396519660950e-01</leafValues></_>
        <_>
          <internalNodes>
            0 -1 182 1.3281535357236862e-02</internalNodes>
          <leafValues>
            -1.9057320058345795e-01 6.5780895948410034e-01</leafValues></_>
        <_>
          <internalNodes>
            0 -1 40 6.6541790962219238e-02</internalNodes>
          <leafValues>
            1.6929200291633606e-01 -8.3815705776214600e-01</leafValues></_></weakClassifiers></_>
    <!-- stage 7 -->
    <_>
      <maxWeakCount>18</maxWeakCount>
      <stageThreshold>-2.2992019653320312e+00</stageThreshold>
      <weakClassifiers>
        <_>
          <internalNodes>
            0 -1 181 2.6274593546986580e-02</internalNodes>
          <leafValues>
            -6.0662466287612915e-01 6.2247836589813232e-01</leafValues></_>
        <_>
          <internalNodes>
            0 -1 10 -2.9303289949893951e-02</internalNodes>
          <leafValues>
            1.8499290943145752e-01 -6.5093630552291870e-01</leafValues></_>
        <_>
          <internalNodes>
            0 -1 11 -9.7288608551025391e-02</internalNodes>
          <leafValues>
            -7.0887893438339233e-01 2.4630464613437653e-01</leafValues></_>
        <_>
          <internalNodes>
            0 -1 131 8.2711279392242432e-03</internalNodes>
          <leafValues>
            -5.9538131952285767e-01 2.4652411043643951e-01</leafValues></_>
        <_>
          <internalNodes>
            0 -1 87 1.2532305845525116e-04</internalNodes>
          <leafValues>
            -7.7390062808990479e-01 1.5521778166294098e-01</leafValues></_>
        <_>
          <internalNodes>
            0 -1 177 -6.0249213129281998e-03</internalNodes>
          <leafValues>
            5.9329378604888916e-01 -2.2462223470211029e-01</leafValues></_>
        <_>
          <internalNodes>
            0 -1 137 -5.9547643177211285e-03</internalNodes>
          <leafValues>
            2.8629636764526367e-01 -4.6129226684570312e-01</leafValues></_>
        <_>
          <internalNodes>
            0 -1 109 -8.5307285189628601e-03</internalNodes>
          <leafValues>
            7.5397574901580811e-01 -1.7985022068023682e-01</leafValues></_>
        <_>
          <internalNodes>
            0 -1 21 -4.4225594028830528e-03</internalNodes>
          <leafValues>
            3.9538717269897461e-01 -3.0982911586761475e-01</leafValues></_>
        <_>
          <internalNodes>
            0 -1 208 6.9324714131653309e-03</internalNodes>
          <leafValues>
            -4.1752967238426208e-01 2.9330298304557800e-01</leafValues></_>
        <_>
          <internalNodes>
            0 -1 61 -4.3616946786642075e-03</internalNodes>
          <leafValues>
            4.4024395942687988e-01 -3.0456873774528503e-01</leafValues></_>
        <_>
          <internalNodes>
            0 -1 226 3.5568852908909321e-03</internalNodes>
          <leafValues>
            -4.0048646926879883e-01 2.7476114034652710e-01</leafValues></_>
        <_>
          <internalNodes>
            0 -1 215 -5.8460223954170942e-04</internalNodes>
          <leafValues>
            -6.7660254240036011e-01 1.5433306992053986e-01</leafValues></_>
        <_>
          <internalNodes>
            0 -1 43 2.4400580674409866e-02</internalNodes>
          <leafValues>
            1.5954920649528503e-01 -5.7928872108459473e-01</leafValues></_>
        <_>
          <internalNodes>
            0 -1 188 4.3300427496433258e-03</internalNodes>
          <leafValues>
            -5.3834164142608643e-01 1.7358882725238800e-01</leafValues></_>
        <_>
          <internalNodes>
            0 -1 133 -3.4392578527331352e-03</internalNodes>
          <leafValues>
            3.9019319415092468e-01 -2.8723534941673279e-01</leafValues></_>
        <_>
          <internalNodes>
            0 -1 176 -1.0343660833314061e-03</internalNodes>
          <leafValues>
            1.5008403360843658e-01 -7.2090458869934082e-01</leafValues></_>
        <_>
          <internalNodes>
            0 -1 162 -3.1769969500601292e-03</internalNodes>
          <leafValues>
            5.8599597215652466e-01 -2.0458799600601196e-01</leafValues></_></weakClassifiers></_>
    <!-- stage 8 -->
    <_>
      <maxWeakCount>17</maxWeakCount>
      <stageThreshold>-2.2230107784271240e+00</stageThreshold>
      <weakClassifiers>
        <_>
          <internalNodes>
            0 -1 69 1.7640065401792526e-02</internalNodes>
          <leafValues>
            -6.9416564702987671e-01 2.6231527328491211e-01</leafValues></_>
        <_>
          <internalNodes>
            0 -1 118 -3.0399372335523367e-03</internalNodes>
          <leafValues>
            5.6977778673171997e-01 -3.3927932381629944e-01</leafValues></_>
        <_>
          <internalNodes>
            0 -1 113 -1.5411861240863800e-01</internalNodes>
          <leafValues>
            -8.3672440052032471e-01 1.7946401238441467e-01</leafValues></_>
        <_>
          <internalNodes>
            0 -1 6 4.2462028563022614e-02</internalNodes>
          <leafValues>
            1.5768682956695557e-01 -7.5599431991577148e-01</leafValues></_>
        <_>
          <internalNodes>
            0 -1 169 2.8512689750641584e-03</internalNodes>
          <leafValues>
            -2.5477758049964905e-01 5.5947870016098022e-01</leafValues></_>
        <_>
          <internalNodes>
            0 -1 55 -1.2600301764905453e-02</internalNodes>
          <leafValues>
            -6.4339560270309448e-01 1.9860590994358063e-01</leafValues></_>
        <_>
          <internalNodes>
            0 -1 96 -4.7944227117113769e-04</internalNodes>
          <leafValues>
            1.5934912860393524e-01 -7.1859610080718994e-01</leafValues></_>
        <_>
          <internalNodes>
            0 -1 103 -1.6527947082067840e-05</internalNodes>
          <leafValues>
            3.1472522020339966e-01 -3.5898315906524658e-01</leafValues></_>
        <_>
          <internalNodes>
            0 -1 39 6.8500041961669922e-03</internalNodes>
          <leafValues>
            -3.5694193840026855e-01 3.3575326204299927e-01</leafValues></_>
        <_>
          <internalNodes>
            0 -1 18 -8.1010730937123299e-03</internalNodes>
          <leafValues>
            2.9114997386932373e-01 -4.5015165209770203e-01</leafValues></_>
        <_>
          <internalNodes>
            0 -1 150 -1.1546246707439423e-02</internalNodes>
          <leafValues>
            4.1540709137916565e-01 -2.9158818721771240e-01</leafValues></_>
        <_>
          <internalNodes>
            0 -1 204 -5.3531131707131863e-03</internalNodes>
          <leafValues>
            6.3402879238128662e-01 -1.5674838423728943e-01</leafValues></_>
        <_>
          <internalNodes>
            0 -1 212 2.9447532724589109e-03</internalNodes>
          <leafValues>
            -1.8001344799995422e-01 6.1120444536209106e-01</leafValues></_>
        <_>
          <internalNodes>
            0 -1 198 1.7880664672702551e-03</internalNodes>
          <leafValues>
            -6.2391400337219238e-01 1.8374080955982208e-01</leafValues></_>
        <_>
          <internalNodes>
            0 -1 165 -6.4642354846000671e-03</internalNodes>
          <leafValues>
            6.4105099439620972e-01 -1.9563969969749451e-01</leafValues></_>
        <_>
          <internalNodes>
            0 -1 130 1.2842977419495583e-02</internalNodes>
          <leafValues>
            1.5904577076435089e-01 -7.3176318407058716e-01</leafValues></_>
        <_>
          <internalNodes>
            0 -1 142 7.0137355942279100e-04</internalNodes>
          <leafValues>
            -3.5012435913085938e-01 2.9227259755134583e-01</leafValues></_></weakClassifiers></_>
    <!-- stage 9 -->
    <_>
      <maxWeakCount>23</maxWeakCount>
      <stageThreshold>-2.3795807361602783e+00</stageThreshold>
      <weakClassifiers>
        <_>
          <internalNodes>
            0 -1 143 1.4711750671267509e-02</internalNodes>
          <leafValues>
            -6.0601460933685303e-01 5.2330225706100464e-01</leafValues></_>
        <_>
          <internalNodes>
            0 -1 152 -1.0521411895751953e-02</internalNodes>
          <leafValues>
            3.2888776063919067e-01 -3.4125453233718872e-01</leafValues></_>
        <_>
          <internalNodes>
            0 -1 67 -2.6954833418130875e-02</internalNodes>
          <leafValues>
            -7.3453342914581299e-01 1.3732422888278961e-01</leafValues></_>
        <_>
          <internalNodes>
            0 -1 2 3.1701870262622833e-02</internalNodes>
          <leafValues>
            2.4075309932231903e-01 -5.8620321750640869e-01</leafValues></_>
        <_>
          <internalNodes>
            0 -1 111 -7.3573533445596695e-03</internalNodes>
          <leafValues>
            5.8684682846069336e-01 -2.2388438880443573e-01</leafValues></_>
        <_>
          <internalNodes>
            0 -1 14 -8.4253391833044589e-05</internalNodes>
          <leafValues>
            2.1179991960525513e-01 -6.3822823762893677e-01</leafValues></_>
        <_>
          <internalNodes>
            0 -1 216 1.0521684773266315e-02</internalNodes>
          <leafValues>
            -3.5540509223937988e-01 2.7674180269241333e-01</leafValues></_>
        <_>
          <internalNodes>
            0 -1 81 1.2814652919769287e-01</internalNodes>
          <leafValues>
            1.2346621602773666e-01 -8.5310381650924683e-01</leafValues></_>
        <_>
          <internalNodes>
            0 -1 107 2.7769010048359632e-03</internalNodes>
          <leafValues>
            -2.1714688837528229e-01 4.5978388190269470e-01</leafValues></_>
        <_>
          <internalNodes>
            0 -1 97 -3.2625992316752672e-03</internalNodes>
          <leafValues>
            1.3505241274833679e-01 -7.3991292715072632e-01</leafValues></_>
        <_>
          <internalNodes>
            0 -1 84 2.3325316142290831e-03</internalNodes>
          <leafValues>
            -2.4975354969501495e-01 4.1961455345153809e-01</leafValues></_>
        <_>
          <internalNodes>
            0 -1 44 -1.3876871671527624e-03</internalNodes>
          <leafValues>
            -5.1023769378662109e-01 1.9281065464019775e-01</leafValues></_>
        <_>
          <internalNodes>
            0 -1 45 7.8337807208299637e-03</internalNodes>
          <leafValues>
            9.6640467643737793e-02 -8.9513915777206421e-01</leafValues></_>
        <_>
          <internalNodes>
            0 -1 48 -1.2473897077143192e-03</internalNodes>
          <leafValues>
            -5.2645456790924072e-01 1.6405756771564484e-01</leafValues></_>
        <_>
          <internalNodes>
            0 -1 94 -9.6272416412830353e-03</internalNodes>
          <leafValues>
            -6.5499842166900635e-01 1.4511948823928833e-01</leafValues></_>
        <_>
          <internalNodes>
            0 -1 157 3.4457575529813766e-03</internalNodes>
          <leafValues>
            -2.0340611040592194e-01 4.8801240324974060e-01</leafValues></_>
        <_>
          <internalNodes>
            0 -1 31 -1.6836352879181504e-03</internalNodes>
          <leafValues>
            -5.9081900119781494e-01 1.6265922784805298e-01</leafValues></_>
        <_>
          <internalNodes>
            0 -1 30 9.5268758013844490e-04</internalNodes>
          <leafValues>
            1.5891490876674652e-01 -5.8064639568328857e-01</leafValues></_>
        <_>
          <internalNodes>
            0 -1 144 -1.3998357579112053e-02</internalNodes>
          <leafValues>
            5.0933754444122314e-01 -2.0501011610031128e-01</leafValues></_>
        <_>
          <internalNodes>
            0 -1 190 -1.3913065195083618e-03</internalNodes>
          <leafValues>
            -4.8766863346099854e-01 1.9756534695625305e-01</leafValues></_>
        <_>
          <internalNodes>
            0 -1 159 1.7045620828866959e-02</internalNodes>
          <leafValues>
            1.1059284955263138e-01 -7.7387458086013794e-01</leafValues></_>
        <_>
          <internalNodes>
            0 -1 139 -3.1944131478667259e-03</internalNodes>
          <leafValues>
            5.7605516910552979e-01 -1.7750395834445953e-01</leafValues></_>
        <_>
          <internalNodes>
            0 -1 136 4.6542938798666000e-04</internalNodes>
          <leafValues>
            -5.8090084791183472e-01 1.7387594282627106e-01</leafValues></_></weakClassifiers></_>
    <!-- stage 10 -->
    <_>
      <maxWeakCount>20</maxWeakCount>
      <stageThreshold>-2.0563750267028809e+00</stageThreshold>
      <weakClassifiers>
        <_>
          <internalNodes>
            0 -1 179 1.8651921302080154e-02</internalNodes>
          <leafValues>
            -5.9233593940734863e-01 5.6006240844726562e-01</leafValues></_>
        <_>
          <internalNodes>
            0 -1 127 -6.6519146785140038e-03</internalNodes>
          <leafValues>
            6.3041758537292480e-01 -2.0794458687305450e-01</leafValues></_>
        <_>
          <internalNodes>
            0 -1 125 1.3541214168071747e-02</internalNodes>
          <leafValues>
            -1.6699007153511047e-01 6.3308441638946533e-01</leafValues></_>
        <_>
          <internalNodes>
            0 -1 128 1.2055277824401855e-02</internalNodes>
          <leafValues>
            -4.8447379469871521e-01 2.3476369678974152e-01</leafValues></_>
        <_>
          <internalNodes>
            0 -1 63 5.9756133705377579e-03</internalNodes>
          <leafValues>
            -3.3045047521591187e-01 2.8647613525390625e-01</leafValues></_>
        <_>
          <internalNodes>
            0 -1 8 -4.8942463472485542e-03</internalNodes>
          <leafValues>
            2.0353502035140991e-01 -5.7189261913299561e-01</leafValues></_>
        <_>
          <internalNodes>
            0 -1 15 2.3180674761533737e-03</internalNodes>
          <leafValues>
            -2.2889307141304016e-01 4.3512079119682312e-01</leafValues></_>
        <_>
          <internalNodes>
            0 -1 202 6.5473048016428947e-03</internalNodes>
          <leafValues>
            -4.4260489940643311e-01 2.1773493289947510e-01</leafValues></_>
        <_>
          <internalNodes>
            0 -1 58 8.5596798453480005e-04</internalNodes>
          <leafValues>
            -4.4451624155044556e-01 2.4366541206836700e-01</leafValues></_>
        <_>
          <internalNodes>
            0 -1 102 -1.0162262246012688e-02</internalNodes>
          <leafValues>
            6.7457872629165649e-01 -1.4987002313137054e-01</leafValues></_>
        <_>
          <internalNodes>
            0 -1 80 -1.6202591723413207e-05</internalNodes>
          <leafValues>
            1.5866206586360931e-01 -6.6190552711486816e-01</leafValues></_>
        <_>
          <internalNodes>
            0 -1 74 8.0432934919372201e-04</internalNodes>
          <leafValues>
            -7.1117943525314331e-01 1.2055119127035141e-01</leafValues></_>
        <_>
          <internalNodes>
            0 -1 155 3.9802961982786655e-03</internalNodes>
          <leafValues>
            -2.2154849767684937e-01 4.7246870398521423e-01</leafValues></_>
        <_>
          <internalNodes>
            0 -1 156 2.8951708227396011e-03</internalNodes>
          <leafValues>
            -1.8932175636291504e-01 5.7520234584808350e-01</leafValues></_>
        <_>
          <internalNodes>
            0 -1 7 9.9763588514178991e-04</internalNodes>
          <leafValues>
            1.5159147977828979e-01 -7.3721569776535034e-01</leafValues></_>
        <_>
          <internalNodes>
            0 -1 85 6.0886209830641747e-03</internalNodes>
          <leafValues>
            -1.9303457438945770e-01 5.5001586675643921e-01</leafValues></_>
        <_>
          <internalNodes>
            0 -1 53 -5.9621250256896019e-03</internalNodes>
          <leafValues>
            3.1177172064781189e-01 -3.0159202218055725e-01</leafValues></_>
        <_>
          <internalNodes>
            0 -1 154 2.8029275126755238e-03</internalNodes>
          <leafValues>
            -2.9523405432701111e-01 2.9985725879669189e-01</leafValues></_>
        <_>
          <internalNodes>
            0 -1 218 2.8404979966580868e-03</internalNodes>
          <leafValues>
            -3.9865025877952576e-01 2.2104319930076599e-01</leafValues></_>
        <_>
          <internalNodes>
            0 -1 217 -5.2170315757393837e-04</internalNodes>
          <leafValues>
            -5.4803818464279175e-01 1.6669574379920959e-01</leafValues></_></weakClassifiers></_>
    <!-- stage 11 -->
    <_>
      <maxWeakCount>19</maxWeakCount>
      <stageThreshold>-2.0401885509490967e+00</stageThreshold>
      <weakClassifiers>
        <_>
          <internalNodes>
            0 -1 180 3.0540984123945236e-02</internalNodes>
          <leafValues>
            -5.9158915281295776e-01 6.6953527927398682e-01</leafValues></_>
        <_>
          <internalNodes>
            0 -1 114 -9.7189974039793015e-03</internalNodes>
          <leafValues>
            1.3574914634227753e-01 -6.0159301757812500e-01</leafValues></_>
        <_>
          <internalNodes>
            0 -1 26 8.6879602167755365e-04</internalNodes>
          <leafValues>
            2.1733281016349792e-01 -6.1192363500595093e-01</leafValues></_>
        <_>
          <internalNodes>
            0 -1 29 6.9430563598871231e-04</internalNodes>
          <leafValues>
            2.3542699217796326e-01 -6.2811070680618286e-01</leafValues></_>
        <_>
          <internalNodes>
            0 -1 164 2.5457460433244705e-02</internalNodes>
          <leafValues>
            -1.8395201861858368e-01 7.7402466535568237e-01</leafValues></_>
        <_>
          <internalNodes>
            0 -1 194 1.3639033772051334e-02</internalNodes>
          <leafValues>
            -6.3790774345397949e-01 1.9017727673053741e-01</leafValues></_>
        <_>
          <internalNodes>
            0 -1 24 9.1443234123289585e-04</internalNodes>
          <leafValues>
            2.0173348486423492e-01 -5.4962116479873657e-01</leafValues></_>
        <_>
          <internalNodes>
            0 -1 25 -2.7193718124181032e-03</internalNodes>
          <leafValues>
            1.4154788851737976e-01 -6.5421479940414429e-01</leafValues></_>
        <_>
          <internalNodes>
            0 -1 79 -3.0003812164068222e-02</internalNodes>
          <leafValues>
            5.3720164299011230e-01 -1.8008792400360107e-01</leafValues></_>
        <_>
          <internalNodes>
            0 -1 122 2.5766480714082718e-02</internalNodes>
          <leafValues>
            -1.1585540324449539e-01 7.9767954349517822e-01</leafValues></_>
        <_>
          <internalNodes>
            0 -1 201 -1.0972260497510433e-03</internalNodes>
          <leafValues>
            -5.2845400571823120e-01 1.9054527580738068e-01</leafValues></_>
        <_>
          <internalNodes>
            0 -1 219 -1.7349179834127426e-03</internalNodes>
          <leafValues>
            -6.0083383321762085e-01 1.4077994227409363e-01</leafValues></_>
        <_>
          <internalNodes>
            0 -1 203 6.3824383541941643e-03</internalNodes>
          <leafValues>
            -1.6174341738224030e-01 6.0447716712951660e-01</leafValues></_>
        <_>
          <internalNodes>
            0 -1 174 1.2830341234803200e-02</internalNodes>
          <leafValues>
            -1.0617832094430923e-01 7.1892333030700684e-01</leafValues></_>
        <_>
          <internalNodes>
            0 -1 193 -2.3494767956435680e-03</internalNodes>
          <leafValues>
            2.7682957053184509e-01 -3.0516126751899719e-01</leafValues></_>
        <_>
          <internalNodes>
            0 -1 191 -9.1668101958930492e-04</internalNodes>
          <leafValues>
            -5.9926998615264893e-01 1.5082214772701263e-01</leafValues></_>
        <_>
          <internalNodes>
            0 -1 220 -7.1008538361638784e-04</internalNodes>
          <leafValues>
            -5.5616229772567749e-01 1.6115026175975800e-01</leafValues></_>
        <_>
          <internalNodes>
            0 -1 78 -1.0235832305625081e-03</internalNodes>
          <leafValues>
            -5.6352508068084717e-01 1.3799346983432770e-01</leafValues></_>
        <_>
          <internalNodes>
            0 -1 93 -1.4659547014161944e-03</internalNodes>
          <leafValues>
            -5.5610668659210205e-01 1.7161992192268372e-01</leafValues></_></weakClassifiers></_>
    <!-- stage 12 -->
    <_>
      <maxWeakCount>22</maxWeakCount>
      <stageThreshold>-2.2654008865356445e+00</stageThreshold>
      <weakClassifiers>
        <_>
          <internalNodes>
            0 -1 73 2.7735549956560135e-02</internalNodes>
          <leafValues>
            -5.8998519182205200e-01 6.7075306177139282e-01</leafValues></_>
        <_>
          <internalNodes>
            0 -1 86 -1.8509374931454659e-03</internalNodes>
          <leafValues>
            3.8909816741943359e-01 -3.7085506319999695e-01</leafValues></_>
        <_>
          <internalNodes>
            0 -1 60 3.4841971937566996e-03</internalNodes>
          <leafValues>
            -1.6575518250465393e-01 5.0283569097518921e-01</leafValues></_>
        <_>
          <internalNodes>
            0 -1 37 -7.6490178704261780e-02</internalNodes>
          <leafValues>
            -7.0431435108184814e-01 1.3582965731620789e-01</leafValues></_>
        <_>
          <internalNodes>
            0 -1 66 -3.2386668026447296e-02</internalNodes>
          <leafValues>
            -6.3916462659835815e-01 1.7863579094409943e-01</leafValues></_>
        <_>
          <internalNodes>
            0 -1 35 -1.8531349487602711e-03</internalNodes>
          <leafValues>
            -6.6336774826049805e-01 1.1582560837268829e-01</leafValues></_>
        <_>
          <internalNodes>
            0 -1 0 1.5082787722349167e-03</internalNodes>
          <leafValues>
            1.4296416938304901e-01 -6.0908234119415283e-01</leafValues></_>
        <_>
          <internalNodes>
            0 -1 57 1.3055850565433502e-01</internalNodes>
          <leafValues>
            8.8088259100914001e-02 -8.1277483701705933e-01</leafValues></_>
        <_>
          <internalNodes>
            0 -1 33 -1.2692087329924107e-03</internalNodes>
          <leafValues>
            -5.4650998115539551e-01 1.2981177866458893e-01</leafValues></_>
        <_>
          <internalNodes>
            0 -1 34 -1.2168450048193336e-03</internalNodes>
          <leafValues>
            -7.6448148488998413e-01 1.2644547224044800e-01</leafValues></_>
        <_>
          <internalNodes>
            0 -1 76 -3.9284303784370422e-03</internalNodes>
          <leafValues>
            2.6219213008880615e-01 -3.2888627052307129e-01</leafValues></_>
        <_>
          <internalNodes>
            0 -1 123 3.5876061301678419e-03</internalNodes>
          <leafValues>
            -1.9601082801818848e-01 5.1952058076858521e-01</leafValues></_>
        <_>
          <internalNodes>
            0 -1 223 9.7608182113617659e-04</internalNodes>
          <leafValues>
            -4.8759520053863525e-01 1.7029032111167908e-01</leafValues></_>
        <_>
          <internalNodes>
            0 -1 42 7.6176039874553680e-03</internalNodes>
          <leafValues>
            -1.9004806876182556e-01 4.4311869144439697e-01</leafValues></_>
        <_>
          <internalNodes>
            0 -1 175 1.5574367716908455e-03</internalNodes>
          <leafValues>
            1.2790153920650482e-01 -6.8783658742904663e-01</leafValues></_>
        <_>
          <internalNodes>
            0 -1 205 -3.5908552818000317e-03</internalNodes>
          <leafValues>
            5.5363988876342773e-01 -1.6079400479793549e-01</leafValues></_>
        <_>
          <internalNodes>
            0 -1 183 1.4729597605764866e-03</internalNodes>
          <leafValues>
            1.3918739557266235e-01 -6.1681938171386719e-01</leafValues></_>
        <_>
          <internalNodes>
            0 -1 105 -4.7612693160772324e-03</internalNodes>
          <leafValues>
            5.2794981002807617e-01 -1.6446092724800110e-01</leafValues></_>
        <_>
          <internalNodes>
            0 -1 200 -1.0300312424078584e-03</internalNodes>
          <leafValues>
            -6.8846523761749268e-01 1.2677592039108276e-01</leafValues></_>
        <_>
          <internalNodes>
            0 -1 116 -5.0260107964277267e-03</internalNodes>
          <leafValues>
            3.5312929749488831e-01 -2.3011291027069092e-01</leafValues></_>
        <_>
          <internalNodes>
            0 -1 211 9.6273943781852722e-03</internalNodes>
          <leafValues>
            -3.4336254000663757e-01 2.5440606474876404e-01</leafValues></_>
        <_>
          <internalNodes>
            0 -1 173 -2.7092744130641222e-03</internalNodes>
          <leafValues>
            5.9234488010406494e-01 -1.3836738467216492e-01</leafValues></_></weakClassifiers></_>
    <!-- stage 13 -->
    <_>
      <maxWeakCount>29</maxWeakCount>
      <stageThreshold>-2.4604291915893555e+00</stageThreshold>
      <weakClassifiers>
        <_>
          <internalNodes>
            0 -1 185 -1.4811632223427296e-02</internalNodes>
          <leafValues>
            4.5736435055732727e-01 -6.0254633426666260e-01</leafValues></_>
        <_>
          <internalNodes>
            0 -1 177 -6.6236956045031548e-03</internalNodes>
          <leafValues>
            4.5789760351181030e-01 -2.3839782178401947e-01</leafValues></_>
        <_>
          <internalNodes>
            0 -1 64 -7.2250850498676300e-03</internalNodes>
          <leafValues>
            2.2508867084980011e-01 -3.9621382951736450e-01</leafValues></_>
        <_>
          <internalNodes>
            0 -1 5 -1.8143132911063731e-04</internalNodes>
          <leafValues>
            2.0805126428604126e-01 -4.1105535626411438e-01</leafValues></_>
        <_>
          <internalNodes>
            0 -1 3 -2.4471296928822994e-03</internalNodes>
          <leafValues>
            -6.0202527046203613e-01 1.7476241290569305e-01</leafValues></_>
        <_>
          <internalNodes>
            0 -1 170 7.5408145785331726e-03</internalNodes>
          <leafValues>
            -1.8764649331569672e-01 5.1486384868621826e-01</leafValues></_>
        <_>
          <internalNodes>
            0 -1 52 -2.4677623063325882e-02</internalNodes>
          <leafValues>
            -5.0457334518432617e-01 1.6282831132411957e-01</leafValues></_>
        <_>
          <internalNodes>
            0 -1 110 -8.9954994618892670e-03</internalNodes>
          <leafValues>
            5.4479813575744629e-01 -1.5727418661117554e-01</leafValues></_>
        <_>
          <internalNodes>
            0 -1 124 3.5892080632038414e-05</internalNodes>
          <leafValues>
            -2.9913547635078430e-01 2.7812859416007996e-01</leafValues></_>
        <_>
          <internalNodes>
            0 -1 88 8.5754337487742305e-04</internalNodes>
          <leafValues>
            -7.1212035417556763e-01 1.1060429364442825e-01</leafValues></_>
        <_>
          <internalNodes>
            0 -1 195 -1.1470429599285126e-02</internalNodes>
          <leafValues>
            2.6263770461082458e-01 -3.1517323851585388e-01</leafValues></_>
        <_>
          <internalNodes>
            0 -1 100 -4.0524229407310486e-03</internalNodes>
          <leafValues>
            5.9605538845062256e-01 -1.3618086278438568e-01</leafValues></_>
        <_>
          <internalNodes>
            0 -1 186 6.0762241482734680e-03</internalNodes>
          <leafValues>
            -1.4509019255638123e-01 5.0533032417297363e-01</leafValues></_>
        <_>
          <internalNodes>
            0 -1 132 4.3833076953887939e-02</internalNodes>
          <leafValues>
            1.1251717805862427e-01 -7.9751688241958618e-01</leafValues></_>
        <_>
          <internalNodes>
            0 -1 82 4.5367278158664703e-02</internalNodes>
          <leafValues>
            6.2608599662780762e-02 -9.0366309881210327e-01</leafValues></_>
        <_>
          <internalNodes>
            0 -1 16 -2.0248129963874817e-01</internalNodes>
          <leafValues>
            -9.3370825052261353e-01 6.1726015061140060e-02</leafValues></_>
        <_>
          <internalNodes>
            0 -1 95 4.8514582216739655e-02</internalNodes>
          <leafValues>
            6.8936556577682495e-02 -9.1432130336761475e-01</leafValues></_>
        <_>
          <internalNodes>
            0 -1 228 1.1265801731497049e-03</internalNodes>
          <leafValues>
            8.0890327692031860e-02 -7.1022337675094604e-01</leafValues></_>
        <_>
          <internalNodes>
            0 -1 222 -1.0230682091787457e-03</internalNodes>
          <leafValues>
            -4.6714952588081360e-01 1.6789409518241882e-01</leafValues></_>
        <_>
          <internalNodes>
            0 -1 187 -5.3380401805043221e-03</internalNodes>
          <leafValues>
            3.8497760891914368e-01 -2.0724572241306305e-01</leafValues></_>
        <_>
          <internalNodes>
            0 -1 145 6.0063339769840240e-03</internalNodes>
          <leafValues>
            -3.3843335509300232e-01 2.2430063784122467e-01</leafValues></_>
        <_>
          <internalNodes>
            0 -1 70 2.1812804043292999e-03</internalNodes>
          <leafValues>
            -1.5886522829532623e-01 5.2950555086135864e-01</leafValues></_>
        <_>
          <internalNodes>
            0 -1 68 7.5890589505434036e-03</internalNodes>
          <leafValues>
            -1.4153409004211426e-01 5.2538293600082397e-01</leafValues></_>
        <_>
          <internalNodes>
            0 -1 141 5.2945977076888084e-03</internalNodes>
          <leafValues>
            -2.6344284415245056e-01 3.0584326386451721e-01</leafValues></_>
        <_>
          <internalNodes>
            0 -1 47 -3.3546071499586105e-03</internalNodes>
          <leafValues>
            -5.7100617885589600e-01 1.3978973031044006e-01</leafValues></_>
        <_>
          <internalNodes>
            0 -1 20 -6.0688308440148830e-03</internalNodes>
          <leafValues>
            2.6245230436325073e-01 -3.5443776845932007e-01</leafValues></_>
        <_>
          <internalNodes>
            0 -1 147 -3.5650150384753942e-03</internalNodes>
          <leafValues>
            5.4457145929336548e-01 -1.5408901870250702e-01</leafValues></_>
        <_>
          <internalNodes>
            0 -1 199 3.5167778842151165e-03</internalNodes>
          <leafValues>
            -3.7587189674377441e-01 2.0724715292453766e-01</leafValues></_>
        <_>
          <internalNodes>
            0 -1 227 9.9775125272572041e-04</internalNodes>
          <leafValues>
            1.4481408894062042e-01 -4.8566064238548279e-01</leafValues></_></weakClassifiers></_>
    <!-- stage 14 -->
    <_>
      <maxWeakCount>26</maxWeakCount>
      <stageThreshold>-2.1106929779052734e+00</stageThreshold>
      <weakClassifiers>
        <_>
          <internalNodes>
            0 -1 178 1.2310507707297802e-02</internalNodes>
          <leafValues>
            -5.9856927394866943e-01 4.8016417026519775e-01</leafValues></_>
        <_>
          <internalNodes>
            0 -1 32 1.0145944543182850e-03</internalNodes>
          <leafValues>
            9.5680810511112213e-02 -5.8790171146392822e-01</leafValues></_>
        <_>
          <internalNodes>
            0 -1 23 4.1458196938037872e-03</internalNodes>
          <leafValues>
            1.6692838072776794e-01 -5.6057572364807129e-01</leafValues></_>
        <_>
          <internalNodes>
            0 -1 49 -3.9120865985751152e-03</internalNodes>
          <leafValues>
            2.0805086195468903e-01 -3.8929265737533569e-01</leafValues></_>
        <_>
          <internalNodes>
            0 -1 161 1.3745366595685482e-03</internalNodes>
          <leafValues>
            -1.7340405285358429e-01 4.5951905846595764e-01</leafValues></_>
        <_>
          <internalNodes>
            0 -1 27 -1.0568021098151803e-03</internalNodes>
          <leafValues>
            1.3525128364562988e-01 -6.6618174314498901e-01</leafValues></_>
        <_>
          <internalNodes>
            0 -1 113 -1.5097974240779877e-01</internalNodes>
          <leafValues>
            -8.0183148384094238e-01 9.9492736160755157e-02</leafValues></_>
        <_>
          <internalNodes>
            0 -1 117 -9.7805652767419815e-03</internalNodes>
          <leafValues>
            -6.7165178060531616e-01 1.0608932375907898e-01</leafValues></_>
        <_>
          <internalNodes>
            0 -1 229 -8.6009909864515066e-04</internalNodes>
          <leafValues>
            -5.2453106641769409e-01 1.5109652280807495e-01</leafValues></_>
        <_>
          <internalNodes>
            0 -1 206 -7.5668320059776306e-03</internalNodes>
          <leafValues>
            7.1509265899658203e-01 -1.3386714458465576e-01</leafValues></_>
        <_>
          <internalNodes>
            0 -1 196 -4.4507812708616257e-03</internalNodes>
          <leafValues>
            4.2228806018829346e-01 -1.9467689096927643e-01</leafValues></_>
        <_>
          <internalNodes>
            0 -1 134 4.5497026294469833e-03</internalNodes>
          <leafValues>
            -1.9945906102657318e-01 4.0981757640838623e-01</leafValues></_>
        <_>
          <internalNodes>
            0 -1 158 2.8311959467828274e-03</internalNodes>
          <leafValues>
            -3.0020025372505188e-01 2.8666502237319946e-01</leafValues></_>
        <_>
          <internalNodes>
            0 -1 184 -2.0790930648217909e-05</internalNodes>
          <leafValues>
            1.3831315934658051e-01 -7.0578318834304810e-01</leafValues></_>
        <_>
          <internalNodes>
            0 -1 129 -1.4389916323125362e-03</internalNodes>
          <leafValues>
            -6.2760239839553833e-01 1.0098181664943695e-01</leafValues></_>
        <_>
          <internalNodes>
            0 -1 72 -2.9912600293755531e-03</internalNodes>
          <leafValues>
            4.4808277487754822e-01 -1.8723441660404205e-01</leafValues></_>
        <_>
          <internalNodes>
            0 -1 99 3.6919683218002319e-02</internalNodes>
          <leafValues>
            1.1148010194301605e-01 -7.7974587678909302e-01</leafValues></_>
        <_>
          <internalNodes>
            0 -1 119 -4.5610293745994568e-03</internalNodes>
          <leafValues>
            4.1619923710823059e-01 -2.0675359666347504e-01</leafValues></_>
        <_>
          <internalNodes>
            0 -1 92 -1.1328757973387837e-03</internalNodes>
          <leafValues>
            -5.9814381599426270e-01 1.3424439728260040e-01</leafValues></_>
        <_>
          <internalNodes>
            0 -1 91 6.3469342421740294e-04</internalNodes>
          <leafValues>
            1.3840226829051971e-01 -6.1909776926040649e-01</leafValues></_>
        <_>
          <internalNodes>
            0 -1 1 -1.4012930914759636e-02</internalNodes>
          <leafValues>
            -7.0921719074249268e-01 1.0207196325063705e-01</leafValues></_>
        <_>
          <internalNodes>
            0 -1 146 3.4082820639014244e-03</internalNodes>
          <leafValues>
            -2.3244835436344147e-01 3.6069539189338684e-01</leafValues></_>
        <_>
          <internalNodes>
            0 -1 160 -6.5079508349299431e-03</internalNodes>
          <leafValues>
            3.4121754765510559e-01 -2.1822211146354675e-01</leafValues></_>
        <_>
          <internalNodes>
            0 -1 71 1.3856886886060238e-02</internalNodes>
          <leafValues>
            -2.0160129666328430e-01 4.2822015285491943e-01</leafValues></_>
        <_>
          <internalNodes>
            0 -1 46 -1.1551736854016781e-02</internalNodes>
          <leafValues>
            7.4486070871353149e-01 -1.0341649502515793e-01</leafValues></_>
        <_>
          <internalNodes>
            0 -1 214 -1.8671408761292696e-03</internalNodes>
          <leafValues>
            4.7731968760490417e-01 -1.6567739844322205e-01</leafValues></_></weakClassifiers></_></stages>
  <features>
    <_>
      <rects>
        <_>
          0 0 2 24 -1.</_>
        <_>
          1 0 1 24 2.</_></rects>
      <tilted>0</tilted></_>
    <_>
      <rects>
        <_>
          0 0 21 1 -1.</_>
        <_>
          7 0 7 1 3.</_></rects>
      <tilted>0</tilted></_>
    <_>
      <rects>
        <_>
          0 0 22 11 -1.</_>
        <_>
          11 0 11 11 2.</_></rects>
      <tilted>0</tilted></_>
    <_>
      <rects>
        <_>
          0 1 1 4 -1.</_>
        <_>
          0 3 1 2 2.</_></rects>
      <tilted>0</tilted></_>
    <_>
      <rects>
        <_>
          0 1 6 8 -1.</_>
        <_>
          3 1 3 8 2.</_></rects>
      <tilted>0</tilted></_>
    <_>
      <rects>
        <_>
          0 1 12 1 -1.</_>
        <_>
          6 1 6 1 2.</_></rects>
      <tilted>0</tilted></_>
    <_>
      <rects>
        <_>
          0 1 16 18 -1.</_>
        <_>
          0 10 16 9 2.</_></rects>
      <tilted>0</tilted></_>
    <_>
      <rects>
        <_>
          0 2 1 2 -1.</_>
        <_>
          0 3 1 1 2.</_></rects>
      <tilted>0</tilted></_>
    <_>
      <rects>
        <_>
          0 3 6 5 -1.</_>
        <_>
          3 3 3 5 2.</_></rects>
      <tilted>0</tilted></_>
    <_>
      <rects>
        <_>
          0 3 6 7 -1.</_>
        <_>
          3 3 3 7 2.</_></rects>
      <tilted>0</tilted></_>
    <_>
      <rects>
        <_>
          0 3 6 17 -1.</_>
        <_>
          3 3 3 17 2.</_></rects>
      <tilted>0</tilted></_>
    <_>
      <rects>
        <_>
          0 3 24 19 -1.</_>
        <_>
          12 3 12 19 2.</_></rects>
      <tilted>0</tilted></_>
    <_>
      <rects>
        <_>
          0 6 2 8 -1.</_>
        <_>
          1 6 1 8 2.</_></rects>
      <tilted>0</tilted></_>
    <_>
      <rects>
        <_>
          0 6 2 10 -1.</_>
        <_>
          1 6 1 10 2.</_></rects>
      <tilted>0</tilted></_>
    <_>
      <rects>
        <_>
          0 6 2 11 -1.</_>
        <_>
          1 6 1 11 2.</_></rects>
      <tilted>0</tilted></_>
    <_>
      <rects>
        <_>
          0 6 9 1 -1.</_>
        <_>
          3 6 3 1 3.</_></rects>
      <tilted>0</tilted></_>
    <_>
      <rects>
        <_>
          0 6 24 11 -1.</_>
        <_>
          8 6 8 11 3.</_></rects>
      <tilted>0</tilted></_>
    <_>
      <rects>
        <_>
          0 7 2 7 -1.</_>
        <_>
          1 7 1 7 2.</_></rects>
      <tilted>0</tilted></_>
    <_>
      <rects>
        <_>
          0 7 4 7 -1.</_>
        <_>
          2 7 2 7 2.</_></rects>
      <tilted>0</tilted></_>
    <_>
      <rects>
        <_>
          0 8 2 5 -1.</_>
        <_>
          1 8 1 5 2.</_></rects>
      <tilted>0</tilted></_>
    <_>
      <rects>
        <_>
          0 8 2 9 -1.</_>
        <_>
          1 8 1 9 2.</_></rects>
      <tilted>0</tilted></_>
    <_>
      <rects>
        <_>
          0 9 2 4 -1.</_>
        <_>
          1 9 1 4 2.</_></rects>
      <tilted>0</tilted></_>
    <_>
      <rects>
        <_>
          0 10 6 5 -1.</_>
        <_>
          2 10 2 5 3.</_></rects>
      <tilted>0</tilted></_>
    <_>
      <rects>
        <_>
          0 13 2 9 -1.</_>
        <_>
          0 16 2 3 3.</_></rects>
      <tilted>0</tilted></_>
    <_>
      <rects>
        <_>
          0 15 1 3 -1.</_>
        <_>
          0 16 1 1 3.</_></rects>
      <tilted>0</tilted></_>
    <_>
      <rects>
        <_>
          0 15 6 5 -1.</_>
        <_>
          3 15 3 5 2.</_></rects>
      <tilted>0</tilted></_>
    <_>
      <rects>
        <_>
          0 16 1 3 -1.</_>
        <_>
          0 17 1 1 3.</_></rects>
      <tilted>0</tilted></_>
    <_>
      <rects>
        <_>
          0 16 6 4 -1.</_>
        <_>
          3 16 3 4 2.</_></rects>
      <tilted>0</tilted></_>
    <_>
      <rects>
        <_>
          0 16 6 5 -1.</_>
        <_>
          3 16 3 5 2.</_></rects>
      <tilted>0</tilted></_>
    <_>
      <rects>
        <_>
          0 17 1 2 -1.</_>
        <_>
          0 18 1 1 2.</_></rects>
      <tilted>0</tilted></_>
    <_>
      <rects>
        <_>
          0 17 1 3 -1.</_>
        <_>
          0 18 1 1 3.</_></rects>
      <tilted>0</tilted></_>
    <_>
      <rects>
        <_>
          0 17 2 3 -1.</_>
        <_>
          0 18 2 1 3.</_></rects>
      <tilted>0</tilted></_>
    <_>
      <rects>
        <_>
          0 18 2 2 -1.</_>
        <_>
          0 19 2 1 2.</_></rects>
      <tilted>0</tilted></_>
    <_>
      <rects>
        <_>
          0 18 2 3 -1.</_>
        <_>
          0 19 2 1 3.</_></rects>
      <tilted>0</tilted></_>
    <_>
      <rects>
        <_>
          0 19 1 2 -1.</_>
        <_>
          0 20 1 1 2.</_></rects>
      <tilted>0</tilted></_>
    <_>
      <rects>
        <_>
          0 20 2 3 -1.</_>
        <_>
          1 20 1 3 2.</_></rects>
      <tilted>0</tilted></_>
    <_>
      <rects>
        <_>
          0 22 16 2 -1.</_>
        <_>
          0 22 8 1 2.</_>
        <_>
          8 23 8 1 2.</_></rects>
      <tilted>0</tilted></_>
    <_>
      <rects>
        <_>
          1 1 20 20 -1.</_>
        <_>
          1 1 10 10 2.</_>
        <_>
          11 11 10 10 2.</_></rects>
      <tilted>0</tilted></_>
    <_>
      <rects>
        <_>
          1 2 3 21 -1.</_>
        <_>
          2 2 1 21 3.</_></rects>
      <tilted>0</tilted></_>
    <_>
      <rects>
        <_>
          1 5 3 16 -1.</_>
        <_>
          2 5 1 16 3.</_></rects>
      <tilted>0</tilted></_>
    <_>
      <rects>
        <_>
          1 5 16 18 -1.</_>
        <_>
          9 5 8 18 2.</_></rects>
      <tilted>0</tilted></_>
    <_>
      <rects>
        <_>
          1 13 4 8 -1.</_>
        <_>
          3 13 2 8 2.</_></rects>
      <tilted>0</tilted></_>
    <_>
      <rects>
        <_>
          1 14 12 2 -1.</_>
        <_>
          1 14 6 1 2.</_>
        <_>
          7 15 6 1 2.</_></rects>
      <tilted>0</tilted></_>
    <_>
      <rects>
        <_>
          1 14 20 8 -1.</_>
        <_>
          11 14 10 8 2.</_></rects>
      <tilted>0</tilted></_>
    <_>
      <rects>
        <_>
          1 15 2 8 -1.</_>
        <_>
          1 19 2 4 2.</_></rects>
      <tilted>0</tilted></_>
    <_>
      <rects>
        <_>
          1 15 6 3 -1.</_>
        <_>
          4 15 3 3 2.</_></rects>
      <tilted>0</tilted></_>
    <_>
      <rects>
        <_>
          1 19 6 1 -1.</_>
        <_>
          3 19 2 1 3.</_></rects>
      <tilted>0</tilted></_>
    <_>
      <rects>
        <_>
          1 20 3 4 -1.</_>
        <_>
          2 20 1 4 3.</_></rects>
      <tilted>0</tilted></_>
    <_>
      <rects>
        <_>
          1 22 6 1 -1.</_>
        <_>
          3 22 2 1 3.</_></rects>
      <tilted>0</tilted></_>
    <_>
      <rects>
        <_>
          2 0 1 14 -1.</_>
        <_>
          2 7 1 7 2.</_></rects>
      <tilted>0</tilted></_>
    <_>
      <rects>
        <_>
          2 0 10 6 -1.</_>
        <_>
          2 3 10 3 2.</_></rects>
      <tilted>0</tilted></_>
    <_>
      <rects>
        <_>
          2 0 20 6 -1.</_>
        <_>
          2 3 20 3 2.</_></rects>
      <tilted>0</tilted></_>
    <_>
      <rects>
        <_>
          2 1 22 22 -1.</_>
        <_>
          13 1 11 22 2.</_></rects>
      <tilted>0</tilted></_>
    <_>
      <rects>
        <_>
          2 3 2 10 -1.</_>
        <_>
          3 3 1 10 2.</_></rects>
      <tilted>0</tilted></_>
    <_>
      <rects>
        <_>
          2 3 2 14 -1.</_>
        <_>
          3 3 1 14 2.</_></rects>
      <tilted>0</tilted></_>
    <_>
      <rects>
        <_>
          2 4 10 20 -1.</_>
        <_>
          2 14 10 10 2.</_></rects>
      <tilted>0</tilted></_>
    <_>
      <rects>
        <_>
          2 6 1 8 -1.</_>
        <_>
          2 10 1 4 2.</_></rects>
      <tilted>0</tilted></_>
    <_>
      <rects>
        <_>
          2 6 22 12 -1.</_>
        <_>
          13 6 11 12 2.</_></rects>
      <tilted>0</tilted></_>
    <_>
      <rects>
        <_>
          2 10 1 8 -1.</_>
        <_>
          2 14 1 4 2.</_></rects>
      <tilted>0</tilted></_>
    <_>
      <rects>
        <_>
          2 10 21 10 -1.</_>
        <_>
          2 15 21 5 2.</_></rects>
      <tilted>0</tilted></_>
    <_>
      <rects>
        <_>
          2 14 3 2 -1.</_>
        <_>
          2 15 3 1 2.</_></rects>
      <tilted>0</tilted></_>
    <_>
      <rects>
        <_>
          2 18 10 2 -1.</_>
        <_>
          2 19 10 1 2.</_></rects>
      <tilted>0</tilted></_>
    <_>
      <rects>
        <_>
          3 0 18 8 -1.</_>
        <_>
          3 4 18 4 2.</_></rects>
      <tilted>0</tilted></_>
    <_>
      <rects>
        <_>
          3 1 17 3 -1.</_>
        <_>
          3 2 17 1 3.</_></rects>
      <tilted>0</tilted></_>
    <_>
      <rects>
        <_>
          3 2 15 2 -1.</_>
        <_>
          3 3 15 1 2.</_></rects>
      <tilted>0</tilted></_>
    <_>
      <rects>
        <_>
          3 2 17 2 -1.</_>
        <_>
          3 3 17 1 2.</_></rects>
      <tilted>0</tilted></_>
    <_>
      <rects>
        <_>
          3 3 18 8 -1.</_>
        <_>
          12 3 9 8 2.</_></rects>
      <tilted>0</tilted></_>
    <_>
      <rects>
        <_>
          3 3 20 7 -1.</_>
        <_>
          13 3 10 7 2.</_></rects>
      <tilted>0</tilted></_>
    <_>
      <rects>
        <_>
          3 7 3 3 -1.</_>
        <_>
          3 8 3 1 3.</_></rects>
      <tilted>0</tilted></_>
    <_>
      <rects>
        <_>
          3 7 16 3 -1.</_>
        <_>
          3 8 16 1 3.</_></rects>
      <tilted>0</tilted></_>
    <_>
      <rects>
        <_>
          3 11 1 2 -1.</_>
        <_>
          3 12 1 1 2.</_></rects>
      <tilted>0</tilted></_>
    <_>
      <rects>
        <_>
          3 11 2 10 -1.</_>
        <_>
          3 16 2 5 2.</_></rects>
      <tilted>0</tilted></_>
    <_>
      <rects>
        <_>
          3 12 1 3 -1.</_>
        <_>
          3 13 1 1 3.</_></rects>
      <tilted>0</tilted></_>
    <_>
      <rects>
        <_>
          3 14 6 3 -1.</_>
        <_>
          3 15 6 1 3.</_></rects>
      <tilted>0</tilted></_>
    <_>
      <rects>
        <_>
          3 17 17 6 -1.</_>
        <_>
          3 20 17 3 2.</_></rects>
      <tilted>0</tilted></_>
    <_>
      <rects>
        <_>
          3 18 13 6 -1.</_>
        <_>
          3 21 13 3 2.</_></rects>
      <tilted>0</tilted></_>
    <_>
      <rects>
        <_>
          3 19 8 3 -1.</_>
        <_>
          3 20 8 1 3.</_></rects>
      <tilted>0</tilted></_>
    <_>
      <rects>
        <_>
          3 19 19 4 -1.</_>
        <_>
          3 21 19 2 2.</_></rects>
      <tilted>0</tilted></_>
    <_>
      <rects>
        <_>
          3 22 3 2 -1.</_>
        <_>
          4 22 1 2 3.</_></rects>
      <tilted>0</tilted></_>
    <_>
      <rects>
        <_>
          4 0 1 24 -1.</_>
        <_>
          4 8 1 8 3.</_></rects>
      <tilted>0</tilted></_>
    <_>
      <rects>
        <_>
          4 0 16 2 -1.</_>
        <_>
          4 1 16 1 2.</_></rects>
      <tilted>0</tilted></_>
    <_>
      <rects>
        <_>
          4 4 12 20 -1.</_>
        <_>
          4 14 12 10 2.</_></rects>
      <tilted>0</tilted></_>
    <_>
      <rects>
        <_>
          4 5 8 14 -1.</_>
        <_>
          8 5 4 14 2.</_></rects>
      <tilted>0</tilted></_>
    <_>
      <rects>
        <_>
          4 7 15 3 -1.</_>
        <_>
          4 8 15 1 3.</_></rects>
      <tilted>0</tilted></_>
    <_>
      <rects>
        <_>
          4 10 4 2 -1.</_>
        <_>
          4 10 2 1 2.</_>
        <_>
          6 11 2 1 2.</_></rects>
      <tilted>0</tilted></_>
    <_>
      <rects>
        <_>
          4 11 2 8 -1.</_>
        <_>
          4 11 1 4 2.</_>
        <_>
          5 15 1 4 2.</_></rects>
      <tilted>0</tilted></_>
    <_>
      <rects>
        <_>
          4 14 1 3 -1.</_>
        <_>
          4 15 1 1 3.</_></rects>
      <tilted>0</tilted></_>
    <_>
      <rects>
        <_>
          4 18 4 6 -1.</_>
        <_>
          4 21 4 3 2.</_></rects>
      <tilted>0</tilted></_>
    <_>
      <rects>
        <_>
          4 18 5 6 -1.</_>
        <_>
          4 21 5 3 2.</_></rects>
      <tilted>0</tilted></_>
    <_>
      <rects>
        <_>
          4 18 17 6 -1.</_>
        <_>
          4 21 17 3 2.</_></rects>
      <tilted>0</tilted></_>
    <_>
      <rects>
        <_>
          4 20 6 2 -1.</_>
        <_>
          4 21 6 1 2.</_></rects>
      <tilted>0</tilted></_>
    <_>
      <rects>
        <_>
          4 22 2 1 -1.</_>
        <_>
          5 22 1 1 2.</_></rects>
      <tilted>0</tilted></_>
    <_>
      <rects>
        <_>
          4 22 3 1 -1.</_>
        <_>
          5 22 1 1 3.</_></rects>
      <tilted>0</tilted></_>
    <_>
      <rects>
        <_>
          4 22 2 2 -1.</_>
        <_>
          5 22 1 2 2.</_></rects>
      <tilted>0</tilted></_>
    <_>
      <rects>
        <_>
          4 23 18 1 -1.</_>
        <_>
          10 23 6 1 3.</_></rects>
      <tilted>0</tilted></_>
    <_>
      <rects>
        <_>
          5 0 7 21 -1.</_>
        <_>
          5 7 7 7 3.</_></rects>
      <tilted>0</tilted></_>
    <_>
      <rects>
        <_>
          5 0 12 2 -1.</_>
        <_>
          5 1 12 1 2.</_></rects>
      <tilted>0</tilted></_>
    <_>
      <rects>
        <_>
          5 0 16 8 -1.</_>
        <_>
          5 4 16 4 2.</_></rects>
      <tilted>0</tilted></_>
    <_>
      <rects>
        <_>
          5 1 14 3 -1.</_>
        <_>
          5 2 14 1 3.</_></rects>
      <tilted>0</tilted></_>
    <_>
      <rects>
        <_>
          5 5 15 6 -1.</_>
        <_>
          10 5 5 6 3.</_></rects>
      <tilted>0</tilted></_>
    <_>
      <rects>
        <_>
          5 10 1 3 -1.</_>
        <_>
          5 11 1 1 3.</_></rects>
      <tilted>0</tilted></_>
    <_>
      <rects>
        <_>
          5 11 12 10 -1.</_>
        <_>
          5 16 12 5 2.</_></rects>
      <tilted>0</tilted></_>
    <_>
      <rects>
        <_>
          5 15 3 3 -1.</_>
        <_>
          5 16 3 1 3.</_></rects>
      <tilted>0</tilted></_>
    <_>
      <rects>
        <_>
          5 16 2 1 -1.</_>
        <_>
          6 16 1 1 2.</_></rects>
      <tilted>0</tilted></_>
    <_>
      <rects>
        <_>
          6 0 10 2 -1.</_>
        <_>
          6 1 10 1 2.</_></rects>
      <tilted>0</tilted></_>
    <_>
      <rects>
        <_>
          6 4 2 3 -1.</_>
        <_>
          7 4 1 3 2.</_></rects>
      <tilted>0</tilted></_>
    <_>
      <rects>
        <_>
          6 6 14 18 -1.</_>
        <_>
          6 15 14 9 2.</_></rects>
      <tilted>0</tilted></_>
    <_>
      <rects>
        <_>
          6 8 2 4 -1.</_>
        <_>
          6 8 1 2 2.</_>
        <_>
          7 10 1 2 2.</_></rects>
      <tilted>0</tilted></_>
    <_>
      <rects>
        <_>
          6 14 4 3 -1.</_>
        <_>
          6 15 4 1 3.</_></rects>
      <tilted>0</tilted></_>
    <_>
      <rects>
        <_>
          6 17 3 2 -1.</_>
        <_>
          7 17 1 2 3.</_></rects>
      <tilted>0</tilted></_>
    <_>
      <rects>
        <_>
          6 18 3 3 -1.</_>
        <_>
          7 18 1 3 3.</_></rects>
      <tilted>0</tilted></_>
    <_>
      <rects>
        <_>
          6 19 3 2 -1.</_>
        <_>
          7 19 1 2 3.</_></rects>
      <tilted>0</tilted></_>
    <_>
      <rects>
        <_>
          7 0 10 2 -1.</_>
        <_>
          7 1 10 1 2.</_></rects>
      <tilted>0</tilted></_>
    <_>
      <rects>
        <_>
          7 0 10 24 -1.</_>
        <_>
          7 8 10 8 3.</_></rects>
      <tilted>0</tilted></_>
    <_>
      <rects>
        <_>
          7 0 11 4 -1.</_>
        <_>
          7 2 11 2 2.</_></rects>
      <tilted>0</tilted></_>
    <_>
      <rects>
        <_>
          7 7 3 15 -1.</_>
        <_>
          8 7 1 15 3.</_></rects>
      <tilted>0</tilted></_>
    <_>
      <rects>
        <_>
          7 8 2 16 -1.</_>
        <_>
          7 8 1 8 2.</_>
        <_>
          8 16 1 8 2.</_></rects>
      <tilted>0</tilted></_>
    <_>
      <rects>
        <_>
          7 12 9 12 -1.</_>
        <_>
          7 18 9 6 2.</_></rects>
      <tilted>0</tilted></_>
    <_>
      <rects>
        <_>
          7 13 1 3 -1.</_>
        <_>
          7 14 1 1 3.</_></rects>
      <tilted>0</tilted></_>
    <_>
      <rects>
        <_>
          7 13 2 3 -1.</_>
        <_>
          7 14 2 1 3.</_></rects>
      <tilted>0</tilted></_>
    <_>
      <rects>
        <_>
          7 14 1 3 -1.</_>
        <_>
          7 15 1 1 3.</_></rects>
      <tilted>0</tilted></_>
    <_>
      <rects>
        <_>
          7 15 3 2 -1.</_>
        <_>
          8 15 1 2 3.</_></rects>
      <tilted>0</tilted></_>
    <_>
      <rects>
        <_>
          7 15 3 7 -1.</_>
        <_>
          8 15 1 7 3.</_></rects>
      <tilted>0</tilted></_>
    <_>
      <rects>
        <_>
          7 16 3 1 -1.</_>
        <_>
          8 16 1 1 3.</_></rects>
      <tilted>0</tilted></_>
    <_>
      <rects>
        <_>
          7 17 1 2 -1.</_>
        <_>
          7 18 1 1 2.</_></rects>
      <tilted>0</tilted></_>
    <_>
      <rects>
        <_>
          7 17 3 4 -1.</_>
        <_>
          8 17 1 4 3.</_></rects>
      <tilted>0</tilted></_>
    <_>
      <rects>
        <_>
          7 18 3 1 -1.</_>
        <_>
          8 18 1 1 3.</_></rects>
      <tilted>0</tilted></_>
    <_>
      <rects>
        <_>
          7 19 3 2 -1.</_>
        <_>
          8 19 1 2 3.</_></rects>
      <tilted>0</tilted></_>
    <_>
      <rects>
        <_>
          7 20 14 4 -1.</_>
        <_>
          7 22 14 2 2.</_></rects>
      <tilted>0</tilted></_>
    <_>
      <rects>
        <_>
          8 0 3 1 -1.</_>
        <_>
          9 0 1 1 3.</_></rects>
      <tilted>0</tilted></_>
    <_>
      <rects>
        <_>
          8 0 10 12 -1.</_>
        <_>
          8 6 10 6 2.</_></rects>
      <tilted>0</tilted></_>
    <_>
      <rects>
        <_>
          8 6 15 18 -1.</_>
        <_>
          8 15 15 9 2.</_></rects>
      <tilted>0</tilted></_>
    <_>
      <rects>
        <_>
          8 10 15 8 -1.</_>
        <_>
          13 10 5 8 3.</_></rects>
      <tilted>0</tilted></_>
    <_>
      <rects>
        <_>
          8 13 2 6 -1.</_>
        <_>
          9 13 1 6 2.</_></rects>
      <tilted>0</tilted></_>
    <_>
      <rects>
        <_>
          8 14 2 8 -1.</_>
        <_>
          8 14 1 4 2.</_>
        <_>
          9 18 1 4 2.</_></rects>
      <tilted>0</tilted></_>
    <_>
      <rects>
        <_>
          8 20 12 3 -1.</_>
        <_>
          8 21 12 1 3.</_></rects>
      <tilted>0</tilted></_>
    <_>
      <rects>
        <_>
          8 22 8 2 -1.</_>
        <_>
          8 23 8 1 2.</_></rects>
      <tilted>0</tilted></_>
    <_>
      <rects>
        <_>
          9 0 6 4 -1.</_>
        <_>
          9 2 6 2 2.</_></rects>
      <tilted>0</tilted></_>
    <_>
      <rects>
        <_>
          9 0 7 2 -1.</_>
        <_>
          9 1 7 1 2.</_></rects>
      <tilted>0</tilted></_>
    <_>
      <rects>
        <_>
          9 3 3 1 -1.</_>
        <_>
          10 3 1 1 3.</_></rects>
      <tilted>0</tilted></_>
    <_>
      <rects>
        <_>
          9 22 7 2 -1.</_>
        <_>
          9 23 7 1 2.</_></rects>
      <tilted>0</tilted></_>
    <_>
      <rects>
        <_>
          10 0 14 2 -1.</_>
        <_>
          10 0 7 1 2.</_>
        <_>
          17 1 7 1 2.</_></rects>
      <tilted>0</tilted></_>
    <_>
      <rects>
        <_>
          10 3 12 4 -1.</_>
        <_>
          10 5 12 2 2.</_></rects>
      <tilted>0</tilted></_>
    <_>
      <rects>
        <_>
          10 7 10 2 -1.</_>
        <_>
          10 7 5 1 2.</_>
        <_>
          15 8 5 1 2.</_></rects>
      <tilted>0</tilted></_>
    <_>
      <rects>
        <_>
          10 13 12 3 -1.</_>
        <_>
          10 14 12 1 3.</_></rects>
      <tilted>0</tilted></_>
    <_>
      <rects>
        <_>
          10 20 5 4 -1.</_>
        <_>
          10 22 5 2 2.</_></rects>
      <tilted>0</tilted></_>
    <_>
      <rects>
        <_>
          11 2 6 1 -1.</_>
        <_>
          14 2 3 1 2.</_></rects>
      <tilted>0</tilted></_>
    <_>
      <rects>
        <_>
          11 4 3 1 -1.</_>
        <_>
          12 4 1 1 3.</_></rects>
      <tilted>0</tilted></_>
    <_>
      <rects>
        <_>
          11 4 9 2 -1.</_>
        <_>
          11 5 9 1 2.</_></rects>
      <tilted>0</tilted></_>
    <_>
      <rects>
        <_>
          11 9 2 6 -1.</_>
        <_>
          11 11 2 2 3.</_></rects>
      <tilted>0</tilted></_>
    <_>
      <rects>
        <_>
          11 11 6 5 -1.</_>
        <_>
          13 11 2 5 3.</_></rects>
      <tilted>0</tilted></_>
    <_>
      <rects>
        <_>
          12 1 11 20 -1.</_>
        <_>
          12 11 11 10 2.</_></rects>
      <tilted>0</tilted></_>
    <_>
      <rects>
        <_>
          12 3 12 4 -1.</_>
        <_>
          12 3 6 2 2.</_>
        <_>
          18 5 6 2 2.</_></rects>
      <tilted>0</tilted></_>
    <_>
      <rects>
        <_>
          12 7 3 1 -1.</_>
        <_>
          13 7 1 1 3.</_></rects>
      <tilted>0</tilted></_>
    <_>
      <rects>
        <_>
          12 9 1 6 -1.</_>
        <_>
          12 11 1 2 3.</_></rects>
      <tilted>0</tilted></_>
    <_>
      <rects>
        <_>
          12 15 2 6 -1.</_>
        <_>
          12 15 1 3 2.</_>
        <_>
          13 18 1 3 2.</_></rects>
      <tilted>0</tilted></_>
    <_>
      <rects>
        <_>
          12 16 3 1 -1.</_>
        <_>
          13 16 1 1 3.</_></rects>
      <tilted>0</tilted></_>
    <_>
      <rects>
        <_>
          12 20 4 2 -1.</_>
        <_>
          12 20 2 1 2.</_>
        <_>
          14 21 2 1 2.</_></rects>
      <tilted>0</tilted></_>
    <_>
      <rects>
        <_>
          12 21 10 1 -1.</_>
        <_>
          17 21 5 1 2.</_></rects>
      <tilted>0</tilted></_>
    <_>
      <rects>
        <_>
          13 0 5 18 -1.</_>
        <_>
          13 9 5 9 2.</_></rects>
      <tilted>0</tilted></_>
    <_>
      <rects>
        <_>
          13 8 3 9 -1.</_>
        <_>
          14 8 1 9 3.</_></rects>
      <tilted>0</tilted></_>
    <_>
      <rects>
        <_>
          13 12 2 2 -1.</_>
        <_>
          13 12 1 1 2.</_>
        <_>
          14 13 1 1 2.</_></rects>
      <tilted>0</tilted></_>
    <_>
      <rects>
        <_>
          13 16 3 1 -1.</_>
        <_>
          14 16 1 1 3.</_></rects>
      <tilted>0</tilted></_>
    <_>
      <rects>
        <_>
          13 18 8 6 -1.</_>
        <_>
          13 21 8 3 2.</_></rects>
      <tilted>0</tilted></_>
    <_>
      <rects>
        <_>
          14 2 3 9 -1.</_>
        <_>
          15 2 1 9 3.</_></rects>
      <tilted>0</tilted></_>
    <_>
      <rects>
        <_>
          14 3 3 3 -1.</_>
        <_>
          15 3 1 3 3.</_></rects>
      <tilted>0</tilted></_>
    <_>
      <rects>
        <_>
          14 3 3 4 -1.</_>
        <_>
          15 3 1 4 3.</_></rects>
      <tilted>0</tilted></_>
    <_>
      <rects>
        <_>
          14 3 3 8 -1.</_>
        <_>
          15 3 1 8 3.</_></rects>
      <tilted>0</tilted></_>
    <_>
      <rects>
        <_>
          14 3 3 11 -1.</_>
        <_>
          15 3 1 11 3.</_></rects>
      <tilted>0</tilted></_>
    <_>
      <rects>
        <_>
          14 5 3 1 -1.</_>
        <_>
          15 5 1 1 3.</_></rects>
      <tilted>0</tilted></_>
    <_>
      <rects>
        <_>
          14 6 8 2 -1.</_>
        <_>
          14 6 4 1 2.</_>
        <_>
          18 7 4 1 2.</_></rects>
      <tilted>0</tilted></_>
    <_>
      <rects>
        <_>
          14 7 3 3 -1.</_>
        <_>
          15 7 1 3 3.</_></rects>
      <tilted>0</tilted></_>
    <_>
      <rects>
        <_>
          14 8 3 3 -1.</_>
        <_>
          14 9 3 1 3.</_></rects>
      <tilted>0</tilted></_>
    <_>
      <rects>
        <_>
          14 13 2 2 -1.</_>
        <_>
          14 13 1 1 2.</_>
        <_>
          15 14 1 1 2.</_></rects>
      <tilted>0</tilted></_>
    <_>
      <rects>
        <_>
          14 17 3 4 -1.</_>
        <_>
          15 17 1 4 3.</_></rects>
      <tilted>0</tilted></_>
    <_>
      <rects>
        <_>
          15 0 3 1 -1.</_>
        <_>
          16 0 1 1 3.</_></rects>
      <tilted>0</tilted></_>
    <_>
      <rects>
        <_>
          15 0 5 6 -1.</_>
        <_>
          15 3 5 3 2.</_></rects>
      <tilted>0</tilted></_>
    <_>
      <rects>
        <_>
          15 3 3 2 -1.</_>
        <_>
          16 3 1 2 3.</_></rects>
      <tilted>0</tilted></_>
    <_>
      <rects>
        <_>
          15 7 2 3 -1.</_>
        <_>
          15 8 2 1 3.</_></rects>
      <tilted>0</tilted></_>
    <_>
      <rects>
        <_>
          15 7 3 3 -1.</_>
        <_>
          15 8 3 1 3.</_></rects>
      <tilted>0</tilted></_>
    <_>
      <rects>
        <_>
          15 7 6 3 -1.</_>
        <_>
          15 8 6 1 3.</_></rects>
      <tilted>0</tilted></_>
    <_>
      <rects>
        <_>
          15 7 7 3 -1.</_>
        <_>
          15 8 7 1 3.</_></rects>
      <tilted>0</tilted></_>
    <_>
      <rects>
        <_>
          15 14 7 3 -1.</_>
        <_>
          15 15 7 1 3.</_></rects>
      <tilted>0</tilted></_>
    <_>
      <rects>
        <_>
          16 0 3 1 -1.</_>
        <_>
          17 0 1 1 3.</_></rects>
      <tilted>0</tilted></_>
    <_>
      <rects>
        <_>
          16 0 4 6 -1.</_>
        <_>
          16 3 4 3 2.</_></rects>
      <tilted>0</tilted></_>
    <_>
      <rects>
        <_>
          16 6 3 3 -1.</_>
        <_>
          16 7 3 1 3.</_></rects>
      <tilted>0</tilted></_>
    <_>
      <rects>
        <_>
          16 13 2 8 -1.</_>
        <_>
          16 13 1 4 2.</_>
        <_>
          17 17 1 4 2.</_></rects>
      <tilted>0</tilted></_>
    <_>
      <rects>
        <_>
          16 17 3 5 -1.</_>
        <_>
          17 17 1 5 3.</_></rects>
      <tilted>0</tilted></_>
    <_>
      <rects>
        <_>
          16 18 5 6 -1.</_>
        <_>
          16 21 5 3 2.</_></rects>
      <tilted>0</tilted></_>
    <_>
      <rects>
        <_>
          17 11 3 8 -1.</_>
        <_>
          18 11 1 8 3.</_></rects>
      <tilted>0</tilted></_>
    <_>
      <rects>
        <_>
          17 22 6 1 -1.</_>
        <_>
          19 22 2 1 3.</_></rects>
      <tilted>0</tilted></_>
    <_>
      <rects>
        <_>
          18 0 2 1 -1.</_>
        <_>
          19 0 1 1 2.</_></rects>
      <tilted>0</tilted></_>
    <_>
      <rects>
        <_>
          18 0 6 22 -1.</_>
        <_>
          21 0 3 22 2.</_></rects>
      <tilted>0</tilted></_>
    <_>
      <rects>
        <_>
          18 3 2 15 -1.</_>
        <_>
          19 3 1 15 2.</_></rects>
      <tilted>0</tilted></_>
    <_>
      <rects>
        <_>
          18 3 6 21 -1.</_>
        <_>
          21 3 3 21 2.</_></rects>
      <tilted>0</tilted></_>
    <_>
      <rects>
        <_>
          18 10 6 8 -1.</_>
        <_>
          20 10 2 8 3.</_></rects>
      <tilted>0</tilted></_>
    <_>
      <rects>
        <_>
          18 15 3 3 -1.</_>
        <_>
          18 16 3 1 3.</_></rects>
      <tilted>0</tilted></_>
    <_>
      <rects>
        <_>
          18 16 6 5 -1.</_>
        <_>
          21 16 3 5 2.</_></rects>
      <tilted>0</tilted></_>
    <_>
      <rects>
        <_>
          18 17 6 4 -1.</_>
        <_>
          21 17 3 4 2.</_></rects>
      <tilted>0</tilted></_>
    <_>
      <rects>
        <_>
          18 18 5 6 -1.</_>
        <_>
          18 21 5 3 2.</_></rects>
      <tilted>0</tilted></_>
    <_>
      <rects>
        <_>
          19 0 2 1 -1.</_>
        <_>
          20 0 1 1 2.</_></rects>
      <tilted>0</tilted></_>
    <_>
      <rects>
        <_>
          19 0 4 1 -1.</_>
        <_>
          21 0 2 1 2.</_></rects>
      <tilted>0</tilted></_>
    <_>
      <rects>
        <_>
          19 4 4 6 -1.</_>
        <_>
          21 4 2 6 2.</_></rects>
      <tilted>0</tilted></_>
    <_>
      <rects>
        <_>
          19 6 2 3 -1.</_>
        <_>
          19 7 2 1 3.</_></rects>
      <tilted>0</tilted></_>
    <_>
      <rects>
        <_>
          19 7 2 3 -1.</_>
        <_>
          19 8 2 1 3.</_></rects>
      <tilted>0</tilted></_>
    <_>
      <rects>
        <_>
          19 10 1 3 -1.</_>
        <_>
          19 11 1 1 3.</_></rects>
      <tilted>0</tilted></_>
    <_>
      <rects>
        <_>
          19 16 2 3 -1.</_>
        <_>
          19 17 2 1 3.</_></rects>
      <tilted>0</tilted></_>
    <_>
      <rects>
        <_>
          20 0 2 18 -1.</_>
        <_>
          21 0 1 18 2.</_></rects>
      <tilted>0</tilted></_>
    <_>
      <rects>
        <_>
          20 2 2 16 -1.</_>
        <_>
          21 2 1 16 2.</_></rects>
      <tilted>0</tilted></_>
    <_>
      <rects>
        <_>
          20 2 2 19 -1.</_>
        <_>
          21 2 1 19 2.</_></rects>
      <tilted>0</tilted></_>
    <_>
      <rects>
        <_>
          20 3 2 13 -1.</_>
        <_>
          21 3 1 13 2.</_></rects>
      <tilted>0</tilted></_>
    <_>
      <rects>
        <_>
          20 4 2 19 -1.</_>
        <_>
          21 4 1 19 2.</_></rects>
      <tilted>0</tilted></_>
    <_>
      <rects>
        <_>
          20 7 1 3 -1.</_>
        <_>
          20 8 1 1 3.</_></rects>
      <tilted>0</tilted></_>
    <_>
      <rects>
        <_>
          20 7 2 15 -1.</_>
        <_>
          21 7 1 15 2.</_></rects>
      <tilted>0</tilted></_>
    <_>
      <rects>
        <_>
          20 14 1 3 -1.</_>
        <_>
          20 15 1 1 3.</_></rects>
      <tilted>0</tilted></_>
    <_>
      <rects>
        <_>
          21 0 2 1 -1.</_>
        <_>
          22 0 1 1 2.</_></rects>
      <tilted>0</tilted></_>
    <_>
      <rects>
        <_>
          21 10 2 12 -1.</_>
        <_>
          21 16 2 6 2.</_></rects>
      <tilted>0</tilted></_>
    <_>
      <rects>
        <_>
          22 0 2 1 -1.</_>
        <_>
          23 0 1 1 2.</_></rects>
      <tilted>0</tilted></_>
    <_>
      <rects>
        <_>
          22 0 2 16 -1.</_>
        <_>
          22 0 1 8 2.</_>
        <_>
          23 8 1 8 2.</_></rects>
      <tilted>0</tilted></_>
    <_>
      <rects>
        <_>
          22 0 2 2 -1.</_>
        <_>
          22 1 2 1 2.</_></rects>
      <tilted>0</tilted></_>
    <_>
      <rects>
        <_>
          22 1 1 2 -1.</_>
        <_>
          22 2 1 1 2.</_></rects>
      <tilted>0</tilted></_>
    <_>
      <rects>
        <_>
          22 1 2 14 -1.</_>
        <_>
          22 1 1 7 2.</_>
        <_>
          23 8 1 7 2.</_></rects>
      <tilted>0</tilted></_>
    <_>
      <rects>
        <_>
          22 2 2 2 -1.</_>
        <_>
          22 3 2 1 2.</_></rects>
      <tilted>0</tilted></_>
    <_>
      <rects>
        <_>
          22 7 2 9 -1.</_>
        <_>
          23 7 1 9 2.</_></rects>
      <tilted>0</tilted></_>
    <_>
      <rects>
        <_>
          22 8 2 7 -1.</_>
        <_>
          23 8 1 7 2.</_></rects>
      <tilted>0</tilted></_>
    <_>
      <rects>
        <_>
          22 9 2 8 -1.</_>
        <_>
          23 9 1 8 2.</_></rects>
      <tilted>0</tilted></_>
    <_>
      <rects>
        <_>
          22 10 2 7 -1.</_>
        <_>
          23 10 1 7 2.</_></rects>
      <tilted>0</tilted></_>
    <_>
      <rects>
        <_>
          22 20 2 2 -1.</_>
        <_>
          22 21 2 1 2.</_></rects>
      <tilted>0</tilted></_>
    <_>
      <rects>
        <_>
          23 2 1 2 -1.</_>
        <_>
          23 3 1 1 2.</_></rects>
      <tilted>0</tilted></_>
    <_>
      <rects>
        <_>
          23 17 1 3 -1.</_>
        <_>
          23 18 1 1 3.</_></rects>
      <tilted>0</tilted></_></features></cascade>
</opencv_storage>
